0.13950689136981964,0.3395742177963257,0.4944459795951843,0.2873651385307312,0.43227052688598633,0.0442807637155056,0.3021531105041504,0.0013273775111883879,0.06918589025735855,-0.18134750425815582,-0.10413122177124023,0.10759468376636505,-0.19093942642211914,-0.2074555605649948,-0.07088302075862885,0.415242075920105,0.26695430278778076,-0.2756463885307312,-0.3020980656147003,0.1958702802658081,-0.33807864785194397,0.3514435589313507,0.05780892074108124,-0.3484850525856018,-0.022200392559170723,0.1792045384645462,-0.009838536381721497,-0.3769909143447876,-0.15948228538036346,-0.25271493196487427,0.009587839245796204,-0.16444748640060425,0.4185081124305725,0.1762273758649826,0.30893585085868835,-0.07588659971952438,0.48065853118896484,-0.21829639375209808,0.1865622103214264,-0.10936559736728668,-0.3313498795032501,0.025409292429685593,0.1547033190727234,0.16900506615638733,0.18787218630313873,0.13588500022888184,-0.1503666639328003,0.14909882843494415,-0.23226679861545563,0.41879862546920776,-0.2543235421180725,-0.49389007687568665,0.03426754102110863,0.04310666769742966,-0.20739232003688812,-0.2945293188095093,0.4857684075832367,0.32586580514907837,0.3283747732639313,0.3999549150466919,0.3744119703769684,-0.2705196738243103,-0.1747281402349472,0.2190416008234024
